{"feature_names": ["casos", "casos_lag1", "casos_lag2", "casos_lag4", "roll_mean4", "roll_mean8", "sin_semana", "cos_semana", "prec", "temp", "hum", "prec_lag4", "prec_lag8", "prec_roll4", "prec_roll8", "temp_lag4", "temp_lag8", "temp_roll4", "temp_roll8", "hum_lag4", "hum_lag8", "hum_roll4", "hum_roll8", "tasa"], "class_labels": ["no_brote", "brote"], "children_left": [1, 2, 3, 4, 5, 6, 7, -1, -1, 10, 11, -1, -1, -1, 15, 16, 17, -1, -1, -1, 21, 22, -1, -1, 25, -1, -1, 28, 29, 30, 31, -1, -1, -1, 35, 36, -1, -1, 39, -1, -1, 42, 43, -1, 45, -1, -1, 48, 49, -1, -1, 52, -1, -1, 55, 56, 57, 58, 59, -1, -1, -1, 63, -1, 65, -1, -1, 68, -1, -1, 71, -1, 73, 74, 75, -1, -1, 78, -1, -1, -1, 82, 83, 84, 85, 86, 87, -1, -1, 90, -1, -1, -1, 94, -1, 96, 97, -1, -1, 100, -1, -1, 103, 104, 105, -1, -1, -1, -1, 110, 111, -1, 113, -1, 115, 116, -1, -1, 119, -1, -1, 122, -1, -1, 125, 126, 127, 128, 129, 130, 131, -1, -1, 134, -1, -1, 137, 138, -1, -1, 141, -1, -1, 144, 145, 146, -1, -1, 149, -1, -1, 152, 153, -1, -1, 156, -1, -1, 159, 160, 161, -1, 163, -1, -1, 166, 167, -1, -1, 170, -1, -1, 173, 174, 175, -1, -1, -1, 179, 180, -1, -1, 183, -1, -1, 186, 187, 188, 189, 190, -1, -1, 193, -1, -1, 196, 197, -1, -1, -1, 201, -1, 203, -1, 205, -1, -1, 208, 209, -1, 211, -1, 213, -1, -1, 216, 217, -1, 219, -1, -1, -1, 223, 224, 225, 226, 227, 228, -1, -1, 231, -1, -1, 234, 235, -1, -1, 238, -1, -1, 241, 242, 243, -1, -1, 246, -1, -1, 249, 250, -1, -1, -1, 254, 255, 256, 257, -1, -1, 260, -1, -1, 263, 264, -1, -1, 267, -1, -1, 270, 271, 272, -1, -1, 275, -1, -1, 278, 279, -1, -1, 282, -1, -1, 285, 286, 287, 288, 289, -1, -1, 292, -1, -1, 295, 296, -1, -1, 299, -1, -1, 302, 303, 304, -1, -1, 307, -1, -1, 310, 311, -1, -1, 314, -1, -1, 317, 318, 319, 320, -1, -1, -1, 324, 325, -1, -1, 328, -1, -1, -1], "children_right": [124, 81, 54, 27, 14, 9, 8, -1, -1, 13, 12, -1, -1, -1, 20, 19, 18, -1, -1, -1, 24, 23, -1, -1, 26, -1, -1, 41, 34, 33, 32, -1, -1, -1, 38, 37, -1, -1, 40, -1, -1, 47, 44, -1, 46, -1, -1, 51, 50, -1, -1, 53, -1, -1, 70, 67, 62, 61, 60, -1, -1, -1, 64, -1, 66, -1, -1, 69, -1, -1, 72, -1, 80, 77, 76, -1, -1, 79, -1, -1, -1, 109, 102, 93, 92, 89, 88, -1, -1, 91, -1, -1, -1, 95, -1, 99, 98, -1, -1, 101, -1, -1, 108, 107, 106, -1, -1, -1, -1, 121, 112, -1, 114, -1, 118, 117, -1, -1, 120, -1, -1, 123, -1, -1, 222, 185, 158, 143, 136, 133, 132, -1, -1, 135, -1, -1, 140, 139, -1, -1, 142, -1, -1, 151, 148, 147, -1, -1, 150, -1, -1, 155, 154, -1, -1, 157, -1, -1, 172, 165, 162, -1, 164, -1, -1, 169, 168, -1, -1, 171, -1, -1, 178, 177, 176, -1, -1, -1, 182, 181, -1, -1, 184, -1, -1, 207, 200, 195, 192, 191, -1, -1, 194, -1, -1, 199, 198, -1, -1, -1, 202, -1, 204, -1, 206, -1, -1, 215, 210, -1, 212, -1, 214, -1, -1, 221, 218, -1, 220, -1, -1, -1, 284, 253, 240, 233, 230, 229, -1, -1, 232, -1, -1, 237, 236, -1, -1, 239, -1, -1, 248, 245, 244, -1, -1, 247, -1, -1, 252, 251, -1, -1, -1, 269, 262, 259, 258, -1, -1, 261, -1, -1, 266, 265, -1, -1, 268, -1, -1, 277, 274, 273, -1, -1, 276, -1, -1, 281, 280, -1, -1, 283, -1, -1, 316, 301, 294, 291, 290, -1, -1, 293, -1, -1, 298, 297, -1, -1, 300, -1, -1, 309, 306, 305, -1, -1, 308, -1, -1, 313, 312, -1, -1, 315, -1, -1, 330, 323, 322, 321, -1, -1, -1, 327, 326, -1, -1, 329, -1, -1, -1], "feature": [5, 5, 23, 22, 16, 10, 9, -2, -2, 20, 8, -2, -2, -2, 9, 22, 6, -2, -2, -2, 14, 11, -2, -2, 7, -2, -2, 15, 6, 19, 14, -2, -2, -2, 13, 18, -2, -2, 8, -2, -2, 18, 8, -2, 16, -2, -2, 21, 7, -2, -2, 12, -2, -2, 0, 9, 13, 20, 22, -2, -2, -2, 15, -2, 12, -2, -2, 14, -2, -2, 23, -2, 12, 22, 22, -2, -2, 8, -2, -2, -2, 23, 17, 18, 12, 12, 22, -2, -2, 10, -2, -2, -2, 13, -2, 22, 22, -2, -2, 21, -2, -2, 7, 16, 20, -2, -2, -2, -2, 17, 10, -2, 18, -2, 11, 23, -2, -2, 13, -2, -2, 7, -2, -2, 5, 23, 5, 20, 1, 4, 9, -2, -2, 18, -2, -2, 14, 13, -2, -2, 18, -2, -2, 11, 19, 16, -2, -2, 8, -2, -2, 21, 7, -2, -2, 18, -2, -2, 15, 22, 4, -2, 14, -2, -2, 21, 11, -2, -2, 14, -2, -2, 4, 21, 15, -2, -2, -2, 13, 11, -2, -2, 17, -2, -2, 23, 15, 23, 13, 18, -2, -2, 12, -2, -2, 10, 20, -2, -2, -2, 16, -2, 19, -2, 11, -2, -2, 0, 16, -2, 19, -2, 18, -2, -2, 13, 4, -2, 16, -2, -2, -2, 23, 5, 16, 5, 8, 17, -2, -2, 22, -2, -2, 23, 0, -2, -2, 18, -2, -2, 18, 10, 19, -2, -2, 4, -2, -2, 6, 8, -2, -2, -2, 16, 23, 20, 18, -2, -2, 17, -2, -2, 8, 6, -2, -2, 5, -2, -2, 4, 14, 18, -2, -2, 9, -2, -2, 17, 22, -2, -2, 10, -2, -2, 4, 15, 4, 21, 14, -2, -2, 1, -2, -2, 23, 1, -2, -2, 16, -2, -2, 18, 13, 21, -2, -2, 23, -2, -2, 13, 12, -2, -2, 7, -2, -2, 5, 10, 6, 21, -2, -2, -2, 5, 10, -2, -2, 2, -2, -2, -2], "threshold": [0.1875, 0.0625, 0.1689031645655632, 68.21750259399414, 12.412142753601074, 74.67642974853516, 4.126428604125977, -2.0, -2.0, 46.821428298950195, 17.09500026702881, -2.0, -2.0, -2.0, 19.142142295837402, 65.1133918762207, 0.8542199432849884, -2.0, -2.0, -2.0, 9.719375133514404, 0.004999999888241291, -2.0, -2.0, 0.910236120223999, -2.0, -2.0, 19.379284858703613, 0.9818253517150879, 85.67071151733398, 2.5643750429153442, -2.0, -2.0, -2.0, 14.288749694824219, 10.329731941223145, -2.0, -2.0, 11.679999828338623, -2.0, -2.0, 22.71473217010498, 0.875, -2.0, 21.559285163879395, -2.0, -2.0, 68.33267974853516, -0.8542199432849884, -2.0, -2.0, 0.004999999888241291, -2.0, -2.0, 1.5, 21.139999389648438, 18.90999984741211, 79.68785858154297, 68.09062194824219, -2.0, -2.0, -2.0, 9.182857036590576, -2.0, 1.0450000166893005, -2.0, -2.0, 0.08562500029802322, -2.0, -2.0, 1.1939418315887451, -2.0, 14.764999866485596, 66.79928588867188, 47.07651710510254, -2.0, -2.0, 0.10500000137835741, -2.0, -2.0, -2.0, 0.11193044483661652, 21.715892791748047, 8.096160888671875, 0.4049999862909317, 0.29500000178813934, 27.63134002685547, -2.0, -2.0, 68.06999969482422, -2.0, -2.0, -2.0, 0.08125000074505806, -2.0, 46.16910743713379, 44.424909591674805, -2.0, -2.0, 48.63410568237305, -2.0, -2.0, -0.9818253517150879, 22.626428604125977, 74.99499893188477, -2.0, -2.0, -2.0, -2.0, 22.387499809265137, 48.240713119506836, -2.0, 7.630535840988159, -2.0, 23.4399995803833, 0.5268005132675171, -2.0, -2.0, 50.29625129699707, -2.0, -2.0, -0.9818253517150879, -2.0, -2.0, 0.8125, 0.2706359177827835, 0.4375, 49.32785606384277, 0.5, 0.625, 18.03499984741211, -2.0, -2.0, 12.030803680419922, -2.0, -2.0, 1.5087500214576721, 0.3087500035762787, -2.0, -2.0, 9.417381286621094, -2.0, -2.0, 5.994999885559082, 67.19214248657227, 22.647857666015625, -2.0, -2.0, 33.35499954223633, -2.0, -2.0, 85.53410720825195, 0.7058167159557343, -2.0, -2.0, 12.82178544998169, -2.0, -2.0, 12.829999923706055, 66.4000473022461, 0.125, -2.0, 1.8381249904632568, -2.0, -2.0, 67.61196517944336, 0.1249999962747097, -2.0, -2.0, 0.6506249904632568, -2.0, -2.0, 0.125, 62.041786193847656, 21.462142944335938, -2.0, -2.0, -2.0, 10.31125020980835, 16.985000610351562, -2.0, -2.0, 19.985535621643066, -2.0, -2.0, 2.2024580240249634, 16.872857093811035, 1.6349878907203674, 0.05250000022351742, 15.557857036590576, -2.0, -2.0, 0.19500000029802322, -2.0, -2.0, 78.36785888671875, 51.43642807006836, -2.0, -2.0, -2.0, 17.23642921447754, -2.0, 50.28785705566406, -2.0, 6.835000038146973, -2.0, -2.0, 3.5, 6.200000047683716, -2.0, 43.00285720825195, -2.0, 7.734196424484253, -2.0, -2.0, 32.80999946594238, 0.125, -2.0, 15.32785701751709, -2.0, -2.0, -2.0, 3.5142399072647095, 2.3125, 14.29714298248291, 1.3125, 0.024999999441206455, 7.53553581237793, -2.0, -2.0, 89.31839370727539, -2.0, -2.0, 3.3386186361312866, 1.5, -2.0, -2.0, 7.498035907745361, -2.0, -2.0, 21.484821319580078, 68.47428512573242, 42.24142837524414, -2.0, -2.0, 3.125, -2.0, -2.0, 0.17992616817355156, 0.9699999988079071, -2.0, -2.0, -2.0, 19.64785671234131, 3.327556014060974, 71.27000045776367, 12.374285697937012, -2.0, -2.0, 7.934464454650879, -2.0, -2.0, 4.140000104904175, -0.17992616817355156, -2.0, -2.0, 2.5625, -2.0, -2.0, 4.625, 13.721874713897705, 23.559106826782227, -2.0, -2.0, 19.790714263916016, -2.0, -2.0, 23.755356788635254, 64.90294647216797, -2.0, -2.0, 52.24571418762207, -2.0, -2.0, 19.125, 16.5649995803833, 2.875, 89.44446563720703, 0.010625000111758709, -2.0, -2.0, 1.0, -2.0, -2.0, 9.007126808166504, 24.0, -2.0, -2.0, 18.255000114440918, -2.0, -2.0, 18.842321395874023, 0.35875000059604645, 49.72946357727051, -2.0, -2.0, 21.083521842956543, -2.0, -2.0, 38.69499969482422, 41.739999771118164, -2.0, -2.0, 0.17992616817355156, -2.0, -2.0, 38.3125, 56.03499984741211, 0.658287763595581, 43.4521427154541, -2.0, -2.0, -2.0, 38.1875, 84.63357162475586, -2.0, -2.0, 36.5, -2.0, -2.0, -2.0], "value": [[[0.5000000000001575, 0.49999999999984174]], [[0.8943394192656663, 0.1056605807343249]], [[0.9383764998643909, 0.061623500135587324]], [[0.948921502797546, 0.05107849720243632]], [[0.9684629994444559, 0.03153700055551216]], [[0.9946008183974806, 0.005399181602518885]], [[1.0, 0.0]], [[1.0, 0.0]], [[1.0, 0.0]], [[0.8546204200443653, 0.14537957995563472]], [[0.4900342568281831, 0.5099657431718165]], [[0.2686899465431624, 0.7313100534568375]], [[1.0, 0.0]], [[1.0, 0.0]], [[0.9555526275427926, 0.0444473724572299]], [[0.9343264241111415, 0.06567357588889502]], [[0.9188755071782321, 0.08112449282176748]], [[0.929550897831317, 0.07044910216868218]], [[0.5924167390398841, 0.4075832609601185]], [[1.0, 0.0]], [[0.9868116106172289, 0.013188389382770995]], [[0.997594862111763, 0.002405137888236942]], [[0.9776536020989125, 0.022346397901087486]], [[1.0, 0.0]], [[0.8723481720964931, 0.12765182790350707]], [[1.0, 0.0]], [[0.5725819882355297, 0.4274180117644706]], [[0.9375995145491256, 0.062400485450838844]], [[0.9491282622986141, 0.05087173770135035]], [[0.9554239183029106, 0.044576081697048284]], [[0.9515070807174456, 0.04849291928251302]], [[0.9080171797440275, 0.09198282025596986]], [[0.9593133355626835, 0.04068666443727303]], [[1.0, 0.0]], [[0.8814674456226226, 0.11853255437737216]], [[0.8138914812376002, 0.1861085187623855]], [[1.0, 0.0]], [[0.7427461187459353, 0.25725388125406456]], [[0.9501917850330787, 0.04980821496691723]], [[1.0, 0.0]], [[0.9238066171781572, 0.07619338282184294]], [[0.8850767486445392, 0.11492325135545958]], [[0.8143540190409703, 0.18564598095902438]], [[1.0, 0.0]], [[0.7811087761316846, 0.21889122386830778]], [[0.8450953981652392, 0.1549046018347524]], [[0.6174409522260078, 0.38255904777399213]], [[0.9860498569241187, 0.01395014307588097]], [[0.8216433794198135, 0.17835662058018759]], [[0.42357070342563985, 0.5764292965743599]], [[1.0, 0.0]], [[1.0, 0.0]], [[1.0, 0.0]], [[1.0, 0.0]], [[0.49348529877197644, 0.5065147012280086]], [[0.5680979427517427, 0.4319020572482529]], [[0.5294433277165466, 0.4705566722834531]], [[0.5854105642907304, 0.4145894357092702]], [[0.5400120112965743, 0.45998798870342633]], [[0.686750357624357, 0.3132496423756447]], [[0.4440676590270341, 0.5559323409729682]], [[1.0, 0.0]], [[0.30894230929284594, 0.6910576907071541]], [[1.0, 0.0]], [[0.24893289389810036, 0.7510671061018991]], [[1.0, 0.0]], [[0.21721119196638006, 0.7827888080336195]], [[1.0, 0.0]], [[1.0, 0.0]], [[1.0, 0.0]], [[0.21457843960016817, 0.7854215603998324]], [[1.0, 0.0]], [[0.1684309967180725, 0.8315690032819277]], [[0.13804447934034797, 0.861955520659652]], [[0.5243140249553309, 0.4756859750446691]], [[0.0, 1.0]], [[1.0, 0.0]], [[0.0948067888432725, 0.9051932111567275]], [[1.0, 0.0]], [[0.07390193559561783, 0.9260980644043822]], [[1.0, 0.0]], [[0.605223053728365, 0.3947769462716912]], [[0.6634697231802186, 0.33653027681978137]], [[0.6384904753624828, 0.36150952463751473]], [[0.9307416550716157, 0.06925834492838435]], [[0.7479543213610877, 0.25204567863891136]], [[1.0, 0.0]], [[1.0, 0.0]], [[1.0, 0.0]], [[0.25325589785966174, 0.7467441021403383]], [[1.0, 0.0]], [[0.040669248366501695, 0.9593307516334983]], [[1.0, 0.0]], [[0.622480122388464, 0.37751987761153405]], [[1.0, 0.0]], [[0.6146707332542006, 0.3853292667457965]], [[0.18907748890939172, 0.8109225110906073]], [[1.0, 0.0]], [[0.1210942315858686, 0.878905768414131]], [[0.6229589411327561, 0.3770410588672397]], [[1.0, 0.0]], [[0.6160834509620661, 0.38391654903792866]], [[0.9773966456947727, 0.022603354305227294]], [[0.6169972719838109, 0.3830027280161891]], [[0.1449874068842366, 0.8550125931157634]], [[1.0, 0.0]], [[0.0, 1.0]], [[1.0, 0.0]], [[1.0, 0.0]], [[0.2987638938981576, 0.7012361061018358]], [[0.2822271196679653, 0.7177728803320281]], [[1.0, 0.0]], [[0.27057445913529626, 0.7294255408646982]], [[1.0, 0.0]], [[0.26259352480777604, 0.7374064751922177]], [[0.2446723188177858, 0.7553276811822106]], [[0.1036360241868191, 0.8963639758131803]], [[0.2636928822002667, 0.7363071177997309]], [[0.6169972719838108, 0.383002728016189]], [[1.0, 0.0]], [[0.0781597965546472, 0.9218402034453528]], [[1.0, 0.0]], [[1.0, 0.0]], [[1.0, 0.0]], [[0.11083162544788543, 0.8891683745521245]], [[0.2708120394329118, 0.7291879605671521]], [[0.33438751574026115, 0.6656124842597998]], [[0.39405170443225845, 0.6059482955677379]], [[0.6183742430420676, 0.38162575695793327]], [[0.8474104656334062, 0.15258953436659428]], [[0.9150231576828285, 0.08497684231717206]], [[1.0, 0.0]], [[0.6169972719838109, 0.3830027280161891]], [[0.2532558978596618, 0.7467441021403383]], [[0.0, 1.0]], [[1.0, 0.0]], [[0.3318223001129182, 0.6681776998870814]], [[0.23242817371271504, 0.7675718262872838]], [[1.0, 0.0]], [[0.1707511165845344, 0.829248883415465]], [[1.0, 0.0]], [[1.0, 0.0]], [[1.0, 0.0]], [[0.38317446135960703, 0.6168255386403881]], [[0.3487350284109955, 0.6512649715889841]], [[0.4201701024747749, 0.5798298975252116]], [[0.398074920491957, 0.6019250795080269]], [[1.0, 0.0]], [[0.29931246665934164, 0.7006875333406418]], [[0.2928990078062882, 0.7071009921936955]], [[1.0, 0.0]], [[0.4472333594908568, 0.5527666405091202]], [[0.4891138461048328, 0.5108861538951438]], [[0.5891716511635744, 0.4108283488364216]], [[0.33617834811672853, 0.6638216518832722]], [[0.24455954556109732, 0.7554404544389046]], [[0.12690340528025473, 0.8730965947197455]], [[0.8027520820459849, 0.19724791795401522]], [[0.2529168239877654, 0.7470831760122197]], [[0.1815869542853626, 0.8184130457146254]], [[0.11711486569565169, 0.8828851343043491]], [[1.0, 0.0]], [[0.09972339792813249, 0.900276602071868]], [[0.1931565246915909, 0.8068434753084094]], [[0.05853725342502607, 0.941462746574974]], [[0.2199736450260917, 0.7800263549739034]], [[0.7367008507023526, 0.26329914929764736]], [[0.0781597965546472, 0.9218402034453528]], [[1.0, 0.0]], [[0.2027807805569004, 0.7972192194430957]], [[1.0, 0.0]], [[0.19681482758274285, 0.803185172417253]], [[0.32535762008046903, 0.6746423799195108]], [[0.6430760843564516, 0.35692391564354864]], [[0.36399321973414195, 0.6360067802658576]], [[0.25325589785966174, 0.7467441021403383]], [[1.0, 0.0]], [[1.0, 0.0]], [[0.3049032220748925, 0.6950967779250895]], [[0.2682451158175618, 0.7317548841824253]], [[0.261960176838453, 0.7380398231615358]], [[1.0, 0.0]], [[0.45222131704066515, 0.5477786829593368]], [[0.3463697395095823, 0.6536302604904194]], [[0.7060803227446739, 0.29391967725532625]], [[0.16838813588112148, 0.8316118641188686]], [[0.21433621760522542, 0.785663782394756]], [[0.17257101040849815, 0.827428989591494]], [[0.1426639877207061, 0.8573360122792896]], [[0.5756575684023254, 0.4243424315976747]], [[1.0, 0.0]], [[0.0, 1.0]], [[0.13433080130838065, 0.8656691986916155]], [[0.24644005858991597, 0.7535599414100846]], [[0.11427864903910503, 0.8857213509608939]], [[0.26412713947647204, 0.73587286052353]], [[0.21689619398279136, 0.7831038060172103]], [[0.0, 1.0]], [[0.2571751639182946, 0.7428248360817074]], [[1.0, 0.0]], [[0.27757321265709195, 0.7224267873429021]], [[1.0, 0.0]], [[0.2656158020306848, 0.7343841979693099]], [[1.0, 0.0]], [[0.256236317782687, 0.7437636822173063]], [[0.20555832371593302, 0.7944416762840678]], [[0.3676467482439218, 0.6323532517560804]], [[0.12218447155398289, 0.8778155284460073]], [[0.1377878839111731, 0.8622121160888163]], [[0.0, 1.0]], [[0.14228397160597614, 0.8577160283940131]], [[1.0, 0.0]], [[0.13819661130976507, 0.8618033886902248]], [[1.0, 0.0]], [[0.13476060116924485, 0.8652393988307459]], [[0.05556274856564538, 0.9444372514343549]], [[0.050909742978853936, 0.9490902570211462]], [[1.0, 0.0]], [[0.046210662005958976, 0.9537893379940412]], [[0.021411938237972647, 0.9785880617620275]], [[0.08609651989636763, 0.9139034801036325]], [[1.0, 0.0]], [[0.05419491365797617, 0.9458050863419962]], [[0.09070412138508123, 0.9092958786149209]], [[0.11811685509012292, 0.8818831449099145]], [[0.07317864547818828, 0.9268213545218065]], [[0.09219176546090375, 0.9078082345390887]], [[0.2394986512961273, 0.760501348703873]], [[1.0, 0.0]], [[0.17489487017913855, 0.825105129820861]], [[0.08239521799631827, 0.9176047820036751]], [[0.0804235417167208, 0.919576458283273]], [[1.0, 0.0]], [[0.05107786557706421, 0.9489221344229324]], [[0.04634895336428843, 0.9536510466357081]], [[0.05624135570312411, 0.9437586442968718]], [[0.018209361754219514, 0.9817906382457806]], [[0.4041567221701135, 0.5958432778298864]], [[0.0, 1.0]], [[1.0, 0.0]], [[0.1685350238119955, 0.8314649761879932]], [[0.15254862395947094, 0.8474513760405183]], [[0.1220327150865844, 0.8779672849134076]], [[1.0, 0.0]], [[0.11826670430462619, 0.8817332956953656]], [[0.19907272902315465, 0.8009272709768325]], [[0.19306756106969075, 0.8069324389302978]], [[1.0, 0.0]], [[0.41967782491113625, 0.5803221750888662]], [[0.34154000882585484, 0.6584599911741472]], [[1.0, 0.0]], [[0.29026227585978104, 0.7097377241402205]], [[1.0, 0.0]], [[0.055359893186732616, 0.9446401068132714]], [[0.036044534435806706, 0.9639554655641912]], [[0.03274188713988449, 0.9672581128601134]], [[0.02345933934360526, 0.9765406606563939]], [[0.04147578201105416, 0.958524217988944]], [[0.010921395991305599, 0.9890786040086939]], [[0.05227862070291044, 0.9477213792970856]], [[0.0, 1.0]], [[0.0626515783341477, 0.9373484216658508]], [[0.10065347384002094, 0.8993465261599798]], [[0.3140575387279897, 0.6859424612720096]], [[1.0, 0.0]], [[0.1690819379152258, 0.8309180620847738]], [[0.02480507044822397, 0.9751949295517761]], [[1.0, 0.0]], [[0.016674585051111895, 0.9833254149488881]], [[0.10254353964110449, 0.8974564603588876]], [[0.15017535934549178, 0.8498246406545047]], [[0.11619165866100065, 0.8838083413389977]], [[0.10944327191965064, 0.8905567280803488]], [[1.0, 0.0]], [[0.4588355361375154, 0.5411644638624841]], [[0.16516093215303396, 0.8348390678469655]], [[1.0, 0.0]], [[0.058972709179987384, 0.9410272908200115]], [[0.05635391548063706, 0.9436460845193618]], [[0.02278508003716285, 0.9772149199628373]], [[0.07333124714151605, 0.9266687528584843]], [[1.0, 0.0]], [[1.0, 0.0]], [[1.0, 0.0]], [[0.02358730580579717, 0.9764126941942011]], [[0.027902913013614642, 0.9720970869863805]], [[0.017623973178543816, 0.9823760268214614]], [[0.03403992653036632, 0.9659600734696323]], [[0.03280220691318559, 0.967197793086813]], [[1.0, 0.0]], [[0.03156131135663819, 0.9684386886433605]], [[1.0, 0.0]], [[1.0, 0.0]], [[1.0, 0.0]], [[0.010608943249894018, 0.9893910567501056]], [[0.019859152777989865, 0.9801408472220084]], [[0.01895995474075312, 0.9810400452592455]], [[1.0, 0.0]], [[0.005451281597618851, 0.9945487184023808]], [[0.0047731238531945035, 0.9952268761468052]], [[1.0, 0.0]], [[0.04485071333698626, 0.9551492866630091]], [[0.09045354998527498, 0.9095464500147217]], [[0.47097236995077535, 0.5290276300492244]], [[0.26868994654316225, 0.731310053456837]], [[1.0, 0.0]], [[0.058458348253546615, 0.9415416517464525]], [[0.08072587792462455, 0.9192741220753753]], [[0.011692374486980957, 0.9883076255130191]], [[0.032146003479949885, 0.9678539965200481]], [[0.031050350154770257, 0.9689496498452278]], [[0.02975166362401883, 0.9702483363759791]], [[0.2761701695603614, 0.7238298304396386]], [[1.0, 0.0]], [[1.0, 0.0]], [[1.0, 0.0]], [[0.005421026407573504, 0.9945789735924263]], [[0.008967244830509702, 0.9910327551694895]], [[0.060889038509389475, 0.9391109614906105]], [[0.042958786414283794, 0.9570412135857164]], [[1.0, 0.0]], [[0.029055250374540327, 0.9709447496254595]], [[1.0, 0.0]], [[0.00500454851428779, 0.9949954514857117]], [[0.004292682003009603, 0.9957073179969901]], [[0.0035797961569308855, 0.9964202038430687]], [[1.0, 0.0]], [[1.0, 0.0]], [[1.0, 0.0]], [[1.0, 0.0]], [[0.0, 1.0]]]}